digraph Tree {
node [shape=box, fontname="helvetica"] ;
edge [fontname="helvetica"] ;
0 [label="x[6] <= 2.5\ngini = 0.567\nsamples = 291\nvalue = [164, 93, 34]"] ;
1 [label="x[2] <= 5.5\ngini = 0.546\nsamples = 205\nvalue = [109, 84, 12]"] ;
0 -> 1 [labeldistance=2.5, labelangle=45, headlabel="True"] ;
2 [label="x[0] <= 6.5\ngini = 0.504\nsamples = 69\nvalue = [26, 41, 2]"] ;
1 -> 2 ;
3 [label="x[8] <= 4.5\ngini = 0.492\nsamples = 66\nvalue = [23, 41, 2]"] ;
2 -> 3 ;
4 [label="x[9] <= 31.5\ngini = 0.358\nsamples = 30\nvalue = [7, 23, 0]"] ;
3 -> 4 ;
5 [label="x[2] <= 0.5\ngini = 0.227\nsamples = 23\nvalue = [3, 20, 0]"] ;
4 -> 5 ;
6 [label="gini = 0.0\nsamples = 1\nvalue = [1, 0, 0]"] ;
5 -> 6 ;
7 [label="x[9] <= 25.5\ngini = 0.165\nsamples = 22\nvalue = [2, 20, 0]"] ;
5 -> 7 ;
8 [label="x[9] <= 24.0\ngini = 0.5\nsamples = 2\nvalue = [1, 1, 0]"] ;
7 -> 8 ;
9 [label="gini = 0.0\nsamples = 1\nvalue = [0, 1, 0]"] ;
8 -> 9 ;
10 [label="gini = 0.0\nsamples = 1\nvalue = [1, 0, 0]"] ;
8 -> 10 ;
11 [label="x[2] <= 3.0\ngini = 0.095\nsamples = 20\nvalue = [1, 19, 0]"] ;
7 -> 11 ;
12 [label="x[1] <= 1.5\ngini = 0.278\nsamples = 6\nvalue = [1, 5, 0]"] ;
11 -> 12 ;
13 [label="gini = 0.0\nsamples = 3\nvalue = [0, 3, 0]"] ;
12 -> 13 ;
14 [label="x[1] <= 2.5\ngini = 0.444\nsamples = 3\nvalue = [1, 2, 0]"] ;
12 -> 14 ;
15 [label="gini = 0.0\nsamples = 1\nvalue = [1, 0, 0]"] ;
14 -> 15 ;
16 [label="gini = 0.0\nsamples = 2\nvalue = [0, 2, 0]"] ;
14 -> 16 ;
17 [label="gini = 0.0\nsamples = 14\nvalue = [0, 14, 0]"] ;
11 -> 17 ;
18 [label="x[9] <= 33.0\ngini = 0.49\nsamples = 7\nvalue = [4, 3, 0]"] ;
4 -> 18 ;
19 [label="gini = 0.0\nsamples = 2\nvalue = [2, 0, 0]"] ;
18 -> 19 ;
20 [label="x[7] <= 1.5\ngini = 0.48\nsamples = 5\nvalue = [2, 3, 0]"] ;
18 -> 20 ;
21 [label="x[9] <= 39.5\ngini = 0.444\nsamples = 3\nvalue = [2, 1, 0]"] ;
20 -> 21 ;
22 [label="gini = 0.0\nsamples = 2\nvalue = [2, 0, 0]"] ;
21 -> 22 ;
23 [label="gini = 0.0\nsamples = 1\nvalue = [0, 1, 0]"] ;
21 -> 23 ;
24 [label="gini = 0.0\nsamples = 2\nvalue = [0, 2, 0]"] ;
20 -> 24 ;
25 [label="x[9] <= 28.5\ngini = 0.549\nsamples = 36\nvalue = [16, 18, 2]"] ;
3 -> 25 ;
26 [label="gini = 0.0\nsamples = 6\nvalue = [6, 0, 0]"] ;
25 -> 26 ;
27 [label="x[1] <= 7.5\ngini = 0.524\nsamples = 30\nvalue = [10, 18, 2]"] ;
25 -> 27 ;
28 [label="x[2] <= 4.5\ngini = 0.453\nsamples = 26\nvalue = [9, 17, 0]"] ;
27 -> 28 ;
29 [label="x[4] <= 41.4\ngini = 0.49\nsamples = 21\nvalue = [9, 12, 0]"] ;
28 -> 29 ;
30 [label="x[4] <= 41.15\ngini = 0.5\nsamples = 18\nvalue = [9, 9, 0]"] ;
29 -> 30 ;
31 [label="x[0] <= 1.5\ngini = 0.498\nsamples = 17\nvalue = [8, 9, 0]"] ;
30 -> 31 ;
32 [label="x[4] <= 39.55\ngini = 0.444\nsamples = 9\nvalue = [3, 6, 0]"] ;
31 -> 32 ;
33 [label="gini = 0.0\nsamples = 4\nvalue = [0, 4, 0]"] ;
32 -> 33 ;
34 [label="x[1] <= 2.5\ngini = 0.48\nsamples = 5\nvalue = [3, 2, 0]"] ;
32 -> 34 ;
35 [label="x[4] <= 40.05\ngini = 0.444\nsamples = 3\nvalue = [1, 2, 0]"] ;
34 -> 35 ;
36 [label="gini = 0.0\nsamples = 1\nvalue = [1, 0, 0]"] ;
35 -> 36 ;
37 [label="gini = 0.0\nsamples = 2\nvalue = [0, 2, 0]"] ;
35 -> 37 ;
38 [label="gini = 0.0\nsamples = 2\nvalue = [2, 0, 0]"] ;
34 -> 38 ;
39 [label="x[0] <= 5.5\ngini = 0.469\nsamples = 8\nvalue = [5, 3, 0]"] ;
31 -> 39 ;
40 [label="x[9] <= 39.5\ngini = 0.408\nsamples = 7\nvalue = [5, 2, 0]"] ;
39 -> 40 ;
41 [label="x[0] <= 4.5\ngini = 0.278\nsamples = 6\nvalue = [5, 1, 0]"] ;
40 -> 41 ;
42 [label="gini = 0.0\nsamples = 4\nvalue = [4, 0, 0]"] ;
41 -> 42 ;
43 [label="x[3] <= 1.5\ngini = 0.5\nsamples = 2\nvalue = [1, 1, 0]"] ;
41 -> 43 ;
44 [label="gini = 0.0\nsamples = 1\nvalue = [0, 1, 0]"] ;
43 -> 44 ;
45 [label="gini = 0.0\nsamples = 1\nvalue = [1, 0, 0]"] ;
43 -> 45 ;
46 [label="gini = 0.0\nsamples = 1\nvalue = [0, 1, 0]"] ;
40 -> 46 ;
47 [label="gini = 0.0\nsamples = 1\nvalue = [0, 1, 0]"] ;
39 -> 47 ;
48 [label="gini = 0.0\nsamples = 1\nvalue = [1, 0, 0]"] ;
30 -> 48 ;
49 [label="gini = 0.0\nsamples = 3\nvalue = [0, 3, 0]"] ;
29 -> 49 ;
50 [label="gini = 0.0\nsamples = 5\nvalue = [0, 5, 0]"] ;
28 -> 50 ;
51 [label="x[4] <= 40.25\ngini = 0.625\nsamples = 4\nvalue = [1, 1, 2]"] ;
27 -> 51 ;
52 [label="x[1] <= 9.5\ngini = 0.444\nsamples = 3\nvalue = [1, 0, 2]"] ;
51 -> 52 ;
53 [label="gini = 0.0\nsamples = 2\nvalue = [0, 0, 2]"] ;
52 -> 53 ;
54 [label="gini = 0.0\nsamples = 1\nvalue = [1, 0, 0]"] ;
52 -> 54 ;
55 [label="gini = 0.0\nsamples = 1\nvalue = [0, 1, 0]"] ;
51 -> 55 ;
56 [label="gini = 0.0\nsamples = 3\nvalue = [3, 0, 0]"] ;
2 -> 56 ;
57 [label="x[9] <= 26.5\ngini = 0.522\nsamples = 136\nvalue = [83, 43, 10]"] ;
1 -> 57 ;
58 [label="x[2] <= 6.5\ngini = 0.34\nsamples = 30\nvalue = [24, 3, 3]"] ;
57 -> 58 ;
59 [label="x[7] <= 1.5\ngini = 0.5\nsamples = 2\nvalue = [0, 1, 1]"] ;
58 -> 59 ;
60 [label="gini = 0.0\nsamples = 1\nvalue = [0, 1, 0]"] ;
59 -> 60 ;
61 [label="gini = 0.0\nsamples = 1\nvalue = [0, 0, 1]"] ;
59 -> 61 ;
62 [label="x[4] <= 30.35\ngini = 0.255\nsamples = 28\nvalue = [24, 2, 2]"] ;
58 -> 62 ;
63 [label="gini = 0.0\nsamples = 1\nvalue = [0, 0, 1]"] ;
62 -> 63 ;
64 [label="x[4] <= 38.55\ngini = 0.203\nsamples = 27\nvalue = [24, 2, 1]"] ;
62 -> 64 ;
65 [label="x[0] <= 5.5\ngini = 0.408\nsamples = 7\nvalue = [5, 2, 0]"] ;
64 -> 65 ;
66 [label="gini = 0.0\nsamples = 2\nvalue = [0, 2, 0]"] ;
65 -> 66 ;
67 [label="gini = 0.0\nsamples = 5\nvalue = [5, 0, 0]"] ;
65 -> 67 ;
68 [label="x[1] <= 24.5\ngini = 0.095\nsamples = 20\nvalue = [19, 0, 1]"] ;
64 -> 68 ;
69 [label="gini = 0.0\nsamples = 18\nvalue = [18, 0, 0]"] ;
68 -> 69 ;
70 [label="x[2] <= 12.5\ngini = 0.5\nsamples = 2\nvalue = [1, 0, 1]"] ;
68 -> 70 ;
71 [label="gini = 0.0\nsamples = 1\nvalue = [0, 0, 1]"] ;
70 -> 71 ;
72 [label="gini = 0.0\nsamples = 1\nvalue = [1, 0, 0]"] ;
70 -> 72 ;
73 [label="x[8] <= 2.5\ngini = 0.543\nsamples = 106\nvalue = [59, 40, 7]"] ;
57 -> 73 ;
74 [label="gini = 0.0\nsamples = 4\nvalue = [0, 4, 0]"] ;
73 -> 74 ;
75 [label="x[0] <= 12.5\ngini = 0.536\nsamples = 102\nvalue = [59, 36, 7]"] ;
73 -> 75 ;
76 [label="x[4] <= 39.05\ngini = 0.505\nsamples = 85\nvalue = [54, 25, 6]"] ;
75 -> 76 ;
77 [label="x[1] <= 3.5\ngini = 0.414\nsamples = 48\nvalue = [35, 11, 2]"] ;
76 -> 77 ;
78 [label="gini = 0.0\nsamples = 2\nvalue = [0, 2, 0]"] ;
77 -> 78 ;
79 [label="x[5] <= 2.5\ngini = 0.381\nsamples = 46\nvalue = [35, 9, 2]"] ;
77 -> 79 ;
80 [label="x[9] <= 27.5\ngini = 0.334\nsamples = 44\nvalue = [35, 8, 1]"] ;
79 -> 80 ;
81 [label="x[7] <= 1.5\ngini = 0.444\nsamples = 3\nvalue = [1, 2, 0]"] ;
80 -> 81 ;
82 [label="gini = 0.0\nsamples = 1\nvalue = [1, 0, 0]"] ;
81 -> 82 ;
83 [label="gini = 0.0\nsamples = 2\nvalue = [0, 2, 0]"] ;
81 -> 83 ;
84 [label="x[5] <= 1.5\ngini = 0.29\nsamples = 41\nvalue = [34, 6, 1]"] ;
80 -> 84 ;
85 [label="gini = 0.0\nsamples = 1\nvalue = [0, 1, 0]"] ;
84 -> 85 ;
86 [label="x[4] <= 37.75\ngini = 0.261\nsamples = 40\nvalue = [34, 5, 1]"] ;
84 -> 86 ;
87 [label="x[0] <= 5.5\ngini = 0.36\nsamples = 17\nvalue = [13, 4, 0]"] ;
86 -> 87 ;
88 [label="x[9] <= 31.5\ngini = 0.5\nsamples = 6\nvalue = [3, 3, 0]"] ;
87 -> 88 ;
89 [label="gini = 0.0\nsamples = 3\nvalue = [0, 3, 0]"] ;
88 -> 89 ;
90 [label="gini = 0.0\nsamples = 3\nvalue = [3, 0, 0]"] ;
88 -> 90 ;
91 [label="x[1] <= 16.5\ngini = 0.165\nsamples = 11\nvalue = [10, 1, 0]"] ;
87 -> 91 ;
92 [label="gini = 0.0\nsamples = 10\nvalue = [10, 0, 0]"] ;
91 -> 92 ;
93 [label="gini = 0.0\nsamples = 1\nvalue = [0, 1, 0]"] ;
91 -> 93 ;
94 [label="x[2] <= 6.5\ngini = 0.163\nsamples = 23\nvalue = [21, 1, 1]"] ;
86 -> 94 ;
95 [label="x[4] <= 38.7\ngini = 0.5\nsamples = 2\nvalue = [1, 1, 0]"] ;
94 -> 95 ;
96 [label="gini = 0.0\nsamples = 1\nvalue = [0, 1, 0]"] ;
95 -> 96 ;
97 [label="gini = 0.0\nsamples = 1\nvalue = [1, 0, 0]"] ;
95 -> 97 ;
98 [label="x[1] <= 15.0\ngini = 0.091\nsamples = 21\nvalue = [20, 0, 1]"] ;
94 -> 98 ;
99 [label="gini = 0.0\nsamples = 18\nvalue = [18, 0, 0]"] ;
98 -> 99 ;
100 [label="x[1] <= 18.5\ngini = 0.444\nsamples = 3\nvalue = [2, 0, 1]"] ;
98 -> 100 ;
101 [label="gini = 0.0\nsamples = 1\nvalue = [0, 0, 1]"] ;
100 -> 101 ;
102 [label="gini = 0.0\nsamples = 2\nvalue = [2, 0, 0]"] ;
100 -> 102 ;
103 [label="x[5] <= 4.5\ngini = 0.5\nsamples = 2\nvalue = [0, 1, 1]"] ;
79 -> 103 ;
104 [label="gini = 0.0\nsamples = 1\nvalue = [0, 1, 0]"] ;
103 -> 104 ;
105 [label="gini = 0.0\nsamples = 1\nvalue = [0, 0, 1]"] ;
103 -> 105 ;
106 [label="x[0] <= 10.5\ngini = 0.581\nsamples = 37\nvalue = [19, 14, 4]"] ;
76 -> 106 ;
107 [label="x[8] <= 3.5\ngini = 0.599\nsamples = 33\nvalue = [15, 14, 4]"] ;
106 -> 107 ;
108 [label="x[1] <= 9.5\ngini = 0.494\nsamples = 9\nvalue = [2, 6, 1]"] ;
107 -> 108 ;
109 [label="gini = 0.0\nsamples = 2\nvalue = [2, 0, 0]"] ;
108 -> 109 ;
110 [label="x[0] <= 4.5\ngini = 0.245\nsamples = 7\nvalue = [0, 6, 1]"] ;
108 -> 110 ;
111 [label="x[9] <= 30.5\ngini = 0.5\nsamples = 2\nvalue = [0, 1, 1]"] ;
110 -> 111 ;
112 [label="gini = 0.0\nsamples = 1\nvalue = [0, 1, 0]"] ;
111 -> 112 ;
113 [label="gini = 0.0\nsamples = 1\nvalue = [0, 0, 1]"] ;
111 -> 113 ;
114 [label="gini = 0.0\nsamples = 5\nvalue = [0, 5, 0]"] ;
110 -> 114 ;
115 [label="x[1] <= 8.5\ngini = 0.58\nsamples = 24\nvalue = [13, 8, 3]"] ;
107 -> 115 ;
116 [label="x[2] <= 6.5\ngini = 0.496\nsamples = 11\nvalue = [5, 6, 0]"] ;
115 -> 116 ;
117 [label="gini = 0.0\nsamples = 2\nvalue = [2, 0, 0]"] ;
116 -> 117 ;
118 [label="x[1] <= 1.5\ngini = 0.444\nsamples = 9\nvalue = [3, 6, 0]"] ;
116 -> 118 ;
119 [label="gini = 0.0\nsamples = 1\nvalue = [1, 0, 0]"] ;
118 -> 119 ;
120 [label="x[2] <= 9.5\ngini = 0.375\nsamples = 8\nvalue = [2, 6, 0]"] ;
118 -> 120 ;
121 [label="x[9] <= 28.0\ngini = 0.245\nsamples = 7\nvalue = [1, 6, 0]"] ;
120 -> 121 ;
122 [label="x[4] <= 40.05\ngini = 0.5\nsamples = 2\nvalue = [1, 1, 0]"] ;
121 -> 122 ;
123 [label="gini = 0.0\nsamples = 1\nvalue = [0, 1, 0]"] ;
122 -> 123 ;
124 [label="gini = 0.0\nsamples = 1\nvalue = [1, 0, 0]"] ;
122 -> 124 ;
125 [label="gini = 0.0\nsamples = 5\nvalue = [0, 5, 0]"] ;
121 -> 125 ;
126 [label="gini = 0.0\nsamples = 1\nvalue = [1, 0, 0]"] ;
120 -> 126 ;
127 [label="x[6] <= 1.5\ngini = 0.544\nsamples = 13\nvalue = [8, 2, 3]"] ;
115 -> 127 ;
128 [label="x[9] <= 38.5\ngini = 0.37\nsamples = 9\nvalue = [7, 1, 1]"] ;
127 -> 128 ;
129 [label="x[0] <= 7.0\ngini = 0.219\nsamples = 8\nvalue = [7, 1, 0]"] ;
128 -> 129 ;
130 [label="x[0] <= 5.5\ngini = 0.444\nsamples = 3\nvalue = [2, 1, 0]"] ;
129 -> 130 ;
131 [label="gini = 0.0\nsamples = 2\nvalue = [2, 0, 0]"] ;
130 -> 131 ;
132 [label="gini = 0.0\nsamples = 1\nvalue = [0, 1, 0]"] ;
130 -> 132 ;
133 [label="gini = 0.0\nsamples = 5\nvalue = [5, 0, 0]"] ;
129 -> 133 ;
134 [label="gini = 0.0\nsamples = 1\nvalue = [0, 0, 1]"] ;
128 -> 134 ;
135 [label="x[2] <= 8.5\ngini = 0.625\nsamples = 4\nvalue = [1, 1, 2]"] ;
127 -> 135 ;
136 [label="gini = 0.0\nsamples = 2\nvalue = [0, 0, 2]"] ;
135 -> 136 ;
137 [label="x[1] <= 14.0\ngini = 0.5\nsamples = 2\nvalue = [1, 1, 0]"] ;
135 -> 137 ;
138 [label="gini = 0.0\nsamples = 1\nvalue = [1, 0, 0]"] ;
137 -> 138 ;
139 [label="gini = 0.0\nsamples = 1\nvalue = [0, 1, 0]"] ;
137 -> 139 ;
140 [label="gini = 0.0\nsamples = 4\nvalue = [4, 0, 0]"] ;
106 -> 140 ;
141 [label="x[2] <= 12.0\ngini = 0.491\nsamples = 17\nvalue = [5, 11, 1]"] ;
75 -> 141 ;
142 [label="x[1] <= 18.0\ngini = 0.593\nsamples = 9\nvalue = [4, 4, 1]"] ;
141 -> 142 ;
143 [label="x[0] <= 15.5\ngini = 0.5\nsamples = 6\nvalue = [1, 4, 1]"] ;
142 -> 143 ;
144 [label="x[4] <= 39.75\ngini = 0.32\nsamples = 5\nvalue = [1, 4, 0]"] ;
143 -> 144 ;
145 [label="gini = 0.0\nsamples = 3\nvalue = [0, 3, 0]"] ;
144 -> 145 ;
146 [label="x[9] <= 37.5\ngini = 0.5\nsamples = 2\nvalue = [1, 1, 0]"] ;
144 -> 146 ;
147 [label="gini = 0.0\nsamples = 1\nvalue = [1, 0, 0]"] ;
146 -> 147 ;
148 [label="gini = 0.0\nsamples = 1\nvalue = [0, 1, 0]"] ;
146 -> 148 ;
149 [label="gini = 0.0\nsamples = 1\nvalue = [0, 0, 1]"] ;
143 -> 149 ;
150 [label="gini = 0.0\nsamples = 3\nvalue = [3, 0, 0]"] ;
142 -> 150 ;
151 [label="x[9] <= 27.5\ngini = 0.219\nsamples = 8\nvalue = [1, 7, 0]"] ;
141 -> 151 ;
152 [label="x[6] <= 1.5\ngini = 0.5\nsamples = 2\nvalue = [1, 1, 0]"] ;
151 -> 152 ;
153 [label="gini = 0.0\nsamples = 1\nvalue = [0, 1, 0]"] ;
152 -> 153 ;
154 [label="gini = 0.0\nsamples = 1\nvalue = [1, 0, 0]"] ;
152 -> 154 ;
155 [label="gini = 0.0\nsamples = 6\nvalue = [0, 6, 0]"] ;
151 -> 155 ;
156 [label="x[9] <= 21.5\ngini = 0.515\nsamples = 86\nvalue = [55, 9, 22]"] ;
0 -> 156 [labeldistance=2.5, labelangle=-45, headlabel="False"] ;
157 [label="gini = 0.0\nsamples = 2\nvalue = [0, 0, 2]"] ;
156 -> 157 ;
158 [label="x[4] <= 41.8\ngini = 0.503\nsamples = 84\nvalue = [55, 9, 20]"] ;
156 -> 158 ;
159 [label="x[2] <= 3.5\ngini = 0.487\nsamples = 81\nvalue = [54, 7, 20]"] ;
158 -> 159 ;
160 [label="gini = 0.0\nsamples = 7\nvalue = [7, 0, 0]"] ;
159 -> 160 ;
161 [label="x[1] <= 26.0\ngini = 0.515\nsamples = 74\nvalue = [47, 7, 20]"] ;
159 -> 161 ;
162 [label="x[4] <= 41.05\ngini = 0.504\nsamples = 73\nvalue = [47, 6, 20]"] ;
161 -> 162 ;
163 [label="x[2] <= 13.5\ngini = 0.533\nsamples = 66\nvalue = [40, 6, 20]"] ;
162 -> 163 ;
164 [label="x[8] <= 4.5\ngini = 0.563\nsamples = 57\nvalue = [32, 6, 19]"] ;
163 -> 164 ;
165 [label="x[4] <= 37.6\ngini = 0.506\nsamples = 32\nvalue = [21, 4, 7]"] ;
164 -> 165 ;
166 [label="x[9] <= 30.5\ngini = 0.625\nsamples = 4\nvalue = [1, 2, 1]"] ;
165 -> 166 ;
167 [label="x[3] <= 1.5\ngini = 0.5\nsamples = 2\nvalue = [1, 0, 1]"] ;
166 -> 167 ;
168 [label="gini = 0.0\nsamples = 1\nvalue = [0, 0, 1]"] ;
167 -> 168 ;
169 [label="gini = 0.0\nsamples = 1\nvalue = [1, 0, 0]"] ;
167 -> 169 ;
170 [label="gini = 0.0\nsamples = 2\nvalue = [0, 2, 0]"] ;
166 -> 170 ;
171 [label="x[0] <= 1.5\ngini = 0.439\nsamples = 28\nvalue = [20, 2, 6]"] ;
165 -> 171 ;
172 [label="x[1] <= 2.5\ngini = 0.612\nsamples = 7\nvalue = [3, 1, 3]"] ;
171 -> 172 ;
173 [label="gini = 0.0\nsamples = 3\nvalue = [3, 0, 0]"] ;
172 -> 173 ;
174 [label="x[4] <= 39.25\ngini = 0.375\nsamples = 4\nvalue = [0, 1, 3]"] ;
172 -> 174 ;
175 [label="gini = 0.0\nsamples = 1\nvalue = [0, 1, 0]"] ;
174 -> 175 ;
176 [label="gini = 0.0\nsamples = 3\nvalue = [0, 0, 3]"] ;
174 -> 176 ;
177 [label="x[2] <= 4.5\ngini = 0.322\nsamples = 21\nvalue = [17, 1, 3]"] ;
171 -> 177 ;
178 [label="gini = 0.0\nsamples = 1\nvalue = [0, 0, 1]"] ;
177 -> 178 ;
179 [label="x[0] <= 6.5\ngini = 0.265\nsamples = 20\nvalue = [17, 1, 2]"] ;
177 -> 179 ;
180 [label="gini = 0.0\nsamples = 12\nvalue = [12, 0, 0]"] ;
179 -> 180 ;
181 [label="x[2] <= 10.0\ngini = 0.531\nsamples = 8\nvalue = [5, 1, 2]"] ;
179 -> 181 ;
182 [label="x[9] <= 28.5\ngini = 0.64\nsamples = 5\nvalue = [2, 1, 2]"] ;
181 -> 182 ;
183 [label="x[1] <= 11.5\ngini = 0.444\nsamples = 3\nvalue = [0, 1, 2]"] ;
182 -> 183 ;
184 [label="gini = 0.0\nsamples = 1\nvalue = [0, 1, 0]"] ;
183 -> 184 ;
185 [label="gini = 0.0\nsamples = 2\nvalue = [0, 0, 2]"] ;
183 -> 185 ;
186 [label="gini = 0.0\nsamples = 2\nvalue = [2, 0, 0]"] ;
182 -> 186 ;
187 [label="gini = 0.0\nsamples = 3\nvalue = [3, 0, 0]"] ;
181 -> 187 ;
188 [label="x[4] <= 40.5\ngini = 0.57\nsamples = 25\nvalue = [11, 2, 12]"] ;
164 -> 188 ;
189 [label="x[9] <= 36.5\ngini = 0.5\nsamples = 22\nvalue = [11, 0, 11]"] ;
188 -> 189 ;
190 [label="x[9] <= 34.5\ngini = 0.495\nsamples = 20\nvalue = [11, 0, 9]"] ;
189 -> 190 ;
191 [label="x[5] <= 2.5\ngini = 0.498\nsamples = 17\nvalue = [8, 0, 9]"] ;
190 -> 191 ;
192 [label="x[0] <= 6.5\ngini = 0.48\nsamples = 15\nvalue = [6, 0, 9]"] ;
191 -> 192 ;
193 [label="x[9] <= 27.5\ngini = 0.496\nsamples = 11\nvalue = [6, 0, 5]"] ;
192 -> 193 ;
194 [label="gini = 0.0\nsamples = 2\nvalue = [0, 0, 2]"] ;
193 -> 194 ;
195 [label="x[4] <= 38.65\ngini = 0.444\nsamples = 9\nvalue = [6, 0, 3]"] ;
193 -> 195 ;
196 [label="x[9] <= 29.5\ngini = 0.48\nsamples = 5\nvalue = [2, 0, 3]"] ;
195 -> 196 ;
197 [label="gini = 0.0\nsamples = 2\nvalue = [2, 0, 0]"] ;
196 -> 197 ;
198 [label="gini = 0.0\nsamples = 3\nvalue = [0, 0, 3]"] ;
196 -> 198 ;
199 [label="gini = 0.0\nsamples = 4\nvalue = [4, 0, 0]"] ;
195 -> 199 ;
200 [label="gini = 0.0\nsamples = 4\nvalue = [0, 0, 4]"] ;
192 -> 200 ;
201 [label="gini = 0.0\nsamples = 2\nvalue = [2, 0, 0]"] ;
191 -> 201 ;
202 [label="gini = 0.0\nsamples = 3\nvalue = [3, 0, 0]"] ;
190 -> 202 ;
203 [label="gini = 0.0\nsamples = 2\nvalue = [0, 0, 2]"] ;
189 -> 203 ;
204 [label="x[0] <= 5.5\ngini = 0.444\nsamples = 3\nvalue = [0, 2, 1]"] ;
188 -> 204 ;
205 [label="gini = 0.0\nsamples = 2\nvalue = [0, 2, 0]"] ;
204 -> 205 ;
206 [label="gini = 0.0\nsamples = 1\nvalue = [0, 0, 1]"] ;
204 -> 206 ;
207 [label="x[1] <= 24.0\ngini = 0.198\nsamples = 9\nvalue = [8, 0, 1]"] ;
163 -> 207 ;
208 [label="gini = 0.0\nsamples = 7\nvalue = [7, 0, 0]"] ;
207 -> 208 ;
209 [label="x[4] <= 40.0\ngini = 0.5\nsamples = 2\nvalue = [1, 0, 1]"] ;
207 -> 209 ;
210 [label="gini = 0.0\nsamples = 1\nvalue = [1, 0, 0]"] ;
209 -> 210 ;
211 [label="gini = 0.0\nsamples = 1\nvalue = [0, 0, 1]"] ;
209 -> 211 ;
212 [label="gini = 0.0\nsamples = 7\nvalue = [7, 0, 0]"] ;
162 -> 212 ;
213 [label="gini = 0.0\nsamples = 1\nvalue = [0, 1, 0]"] ;
161 -> 213 ;
214 [label="x[4] <= 42.1\ngini = 0.444\nsamples = 3\nvalue = [1, 2, 0]"] ;
158 -> 214 ;
215 [label="gini = 0.0\nsamples = 2\nvalue = [0, 2, 0]"] ;
214 -> 215 ;
216 [label="gini = 0.0\nsamples = 1\nvalue = [1, 0, 0]"] ;
214 -> 216 ;
}